{
  "input_nodes": 5,
  "hidden_nodes": 8,
  "output_nodes": 2,
  "weights_ih": {
    "rows": 8,
    "cols": 5,
    "data": [
      [
        -0.758778829167318,
        1.4776421029555387,
        1.0185733143589424,
        -1.2968646544426874,
        -0.8934616585081191
      ],
      [
        0.1399349334105128,
        1.118202755247874,
        -0.044592867828288196,
        -0.3296585299858883,
        1.5787507471904463
      ],
      [
        -0.8512527263496888,
        0.6519674839491755,
        -0.11144209741944439,
        -0.34600801445830703,
        -1.0747075249171616
      ],
      [
        0.8494269862202061,
        0.6417141002729438,
        -0.7901245938317756,
        -0.5313522080574127,
        0.687529129072927
      ],
      [
        1.2818010056789408,
        1.8773130165735419,
        -1.28995784301418,
        0.022412432123647935,
        -0.007684298086327132
      ],
      [
        -0.02858203321544267,
        -0.08564997068102623,
        -1.9888657911370098,
        0.9177687454900216,
        -1.8193217748750201
      ],
      [
        1.487647621345919,
        -0.8712522026661528,
        1.1650227091194034,
        0.11946210868052445,
        0.5345946166419101
      ],
      [
        -0.9904401756426027,
        0.3974288963328032,
        -0.9787877719897984,
        -1.0036140134371168,
        0.5415680549460486
      ]
    ]
  },
  "weights_ho": {
    "rows": 2,
    "cols": 8,
    "data": [
      [
        -1.0213021148115358,
        -0.5536285803199495,
        -0.018743036027210835,
        0.528470314480544,
        0.992549847893336,
        0.45634018990522357,
        1.8875401971553263,
        0.162721814963544
      ],
      [
        -0.47647264909225767,
        -0.0246190610555157,
        2.325489583156083,
        0.16850888739929723,
        0.6926281069260558,
        0.10476013005332882,
        -0.18304016190300687,
        -0.20262007616521654
      ]
    ]
  },
  "bias_h": {
    "rows": 8,
    "cols": 1,
    "data": [
      [
        -0.5298339452865047
      ],
      [
        -1.3746711113441228
      ],
      [
        -0.43965182264882463
      ],
      [
        1.313076741876135
      ],
      [
        1.2143815086239016
      ],
      [
        0.6568851020598018
      ],
      [
        -0.3955007573379655
      ],
      [
        0.11194612951437993
      ]
    ]
  },
  "bias_o": {
    "rows": 2,
    "cols": 1,
    "data": [
      [
        -0.5639436050236892
      ],
      [
        0.8513366357876647
      ]
    ]
  },
  "learning_rate": 0.1,
  "activation_function": {}
}
